digraph Tree {
node [shape=box, style="filled, rounded", color="black", fontname="helvetica"] ;
edge [fontname="helvetica"] ;
0 [label="petal length <= 2.6\ngini = 0.667\nsamples = 120\nvalue = [41, 39, 40]\nclass = Setosa", fillcolor="#fffdfd"] ;
1 [label="gini = 0.0\nsamples = 41\nvalue = [41, 0, 0]\nclass = Setosa", fillcolor="#e58139"] ;
0 -> 1 [labeldistance=2.5, labelangle=45, headlabel="True"] ;
2 [label="petal width <= 1.75\ngini = 0.5\nsamples = 79\nvalue = [0, 39, 40]\nclass = Virginica", fillcolor="#fcfafe"] ;
0 -> 2 [labeldistance=2.5, labelangle=-45, headlabel="False"] ;
3 [label="petal length <= 4.95\ngini = 0.201\nsamples = 44\nvalue = [0, 39, 5]\nclass = Versicolor", fillcolor="#52e891"] ;
2 -> 3 ;
4 [label="petal width <= 1.65\ngini = 0.051\nsamples = 38\nvalue = [0, 37, 1]\nclass = Versicolor", fillcolor="#3ee684"] ;
3 -> 4 ;
5 [label="gini = 0.0\nsamples = 37\nvalue = [0, 37, 0]\nclass = Versicolor", fillcolor="#39e581"] ;
4 -> 5 ;
6 [label="gini = 0.0\nsamples = 1\nvalue = [0, 0, 1]\nclass = Virginica", fillcolor="#8139e5"] ;
4 -> 6 ;
7 [label="petal width <= 1.55\ngini = 0.444\nsamples = 6\nvalue = [0, 2, 4]\nclass = Virginica", fillcolor="#c09cf2"] ;
3 -> 7 ;
8 [label="gini = 0.0\nsamples = 3\nvalue = [0, 0, 3]\nclass = Virginica", fillcolor="#8139e5"] ;
7 -> 8 ;
9 [label="sepal length <= 6.95\ngini = 0.444\nsamples = 3\nvalue = [0, 2, 1]\nclass = Versicolor", fillcolor="#9cf2c0"] ;
7 -> 9 ;
10 [label="gini = 0.0\nsamples = 2\nvalue = [0, 2, 0]\nclass = Versicolor", fillcolor="#39e581"] ;
9 -> 10 ;
11 [label="gini = 0.0\nsamples = 1\nvalue = [0, 0, 1]\nclass = Virginica", fillcolor="#8139e5"] ;
9 -> 11 ;
12 [label="gini = 0.0\nsamples = 35\nvalue = [0, 0, 35]\nclass = Virginica", fillcolor="#8139e5"] ;
2 -> 12 ;
}